<?xml version="1.0"?>
<opencv_storage>
<cascade>
  <stageType>BOOST</stageType>
  <featureType>LBP</featureType>
  <height>50</height>
  <width>50</width>
  <stageParams>
    <boostType>GAB</boostType>
    <minHitRate>9.9500000476837158e-01</minHitRate>
    <maxFalseAlarm>5.0000000000000000e-01</maxFalseAlarm>
    <weightTrimRate>9.4999999999999996e-01</weightTrimRate>
    <maxDepth>1</maxDepth>
    <maxWeakCount>100</maxWeakCount></stageParams>
  <featureParams>
    <maxCatCount>256</maxCatCount>
    <featSize>1</featSize></featureParams>
  <stageNum>15</stageNum>
  <stages>
    <!-- stage 0 -->
    <_>
      <maxWeakCount>5</maxWeakCount>
      <stageThreshold>-1.0287729501724243e+00</stageThreshold>
      <weakClassifiers>
        <_>
          <internalNodes>
            0 -1 114 -1342214337 -1371540289 -1355809809 -285363749
            -278190217 1878505535 -5787 -11</internalNodes>
          <leafValues>
            -6.4121341705322266e-01 4.4397640228271484e-01</leafValues></_>
        <_>
          <internalNodes>
            0 -1 88 780033877 511108959 -67109985 -1238958241 1874554183
            -67372787 -332767691 -17500924</internalNodes>
          <leafValues>
            -6.5950942039489746e-01 4.0778309106826782e-01</leafValues></_>
        <_>
          <internalNodes>
            0 -1 99 259817279 801103711 -136316037 -1612925265 820871039
            -4461073 -406849227 -289898524</internalNodes>
          <leafValues>
            -5.9352660179138184e-01 4.6636188030242920e-01</leafValues></_>
        <_>
          <internalNodes>
            0 -1 15 1393607846 -717290475 -1056468515 2006385661
            1645285639 -71077614 1368744191 2143510803</internalNodes>
          <leafValues>
            -5.8453601598739624e-01 4.9164217710494995e-01</leafValues></_>
        <_>
          <internalNodes>
            0 -1 21 804089655 784444303 -1019050641 -862798401 591885591
            -73742853 2078217041 -327878060</internalNodes>
          <leafValues>
            -6.7716848850250244e-01 4.4829431176185608e-01</leafValues></_></weakClassifiers></_>
    <!-- stage 1 -->
    <_>
      <maxWeakCount>7</maxWeakCount>
      <stageThreshold>-1.0936944484710693e+00</stageThreshold>
      <weakClassifiers>
        <_>
          <internalNodes>
            0 -1 120 -268968001 -1358963558 -534786593 -1395666721
            -242128089 1606009871 -83105289 -136315209</internalNodes>
          <leafValues>
            -6.2717574834823608e-01 3.1714719533920288e-01</leafValues></_>
        <_>
          <internalNodes>
            0 -1 84 -1074045569 2045858259 -1182546465 -557163269
            -739479459 -12637981 -374407235 -22773915</internalNodes>
          <leafValues>
            -5.1107990741729736e-01 4.0767529606819153e-01</leafValues></_>
        <_>
          <internalNodes>
            0 -1 125 -1879081169 -1363782947 -2103979590 -829236100
            1795309591 1395576475 -572584076 -16888459</internalNodes>
          <leafValues>
            -5.5066353082656860e-01 3.7364488840103149e-01</leafValues></_>
        <_>
          <internalNodes>
            0 -1 70 803168117 2044154353 -317992545 -1088285955
            -1162948705 -18707573 -829306177 -1104126651</internalNodes>
          <leafValues>
            -5.7653743028640747e-01 3.5820084810256958e-01</leafValues></_>
        <_>
          <internalNodes>
            0 -1 16 -961610718 -690077248 1417679196 -44235508 625502818
            1627538177 1155290450 1601426243</internalNodes>
          <leafValues>
            -6.1495238542556763e-01 3.5713049769401550e-01</leafValues></_>
        <_>
          <internalNodes>
            0 -1 108 -1342214159 -1884291269 2147483445 -33554448
            -1073758723 -562036737 -1073777163 -1375731719</internalNodes>
          <leafValues>
            -4.0504643321037292e-01 5.4533487558364868e-01</leafValues></_>
        <_>
          <internalNodes>
            0 -1 53 -950814398 390137105 1611895165 269603409
            -1060253515 -633241597 -536262520 1275983138</internalNodes>
          <leafValues>
            -6.0168403387069702e-01 3.6288908123970032e-01</leafValues></_></weakClassifiers></_>
    <!-- stage 2 -->
    <_>
      <maxWeakCount>7</maxWeakCount>
      <stageThreshold>-1.2910017967224121e+00</stageThreshold>
      <weakClassifiers>
        <_>
          <internalNodes>
            0 -1 96 664239999 -8938537 -81403905 -25232033 -828479763
            -1107303489 -336793640 -52110572</internalNodes>
          <leafValues>
            -5.8639019727706909e-01 3.3169129490852356e-01</leafValues></_>
        <_>
          <internalNodes>
            0 -1 115 792673789 266133461 -640592905 -1342181043
            785121143 2079448991 -150639643 -134423135</internalNodes>
          <leafValues>
            -5.4480397701263428e-01 3.8523736596107483e-01</leafValues></_>
        <_>
          <internalNodes>
            0 -1 33 788471615 777748439 -845586977 1981707229 1519208791
            -10498505 -387483324 -93293707</internalNodes>
          <leafValues>
            -5.8139067888259888e-01 3.5827699303627014e-01</leafValues></_>
        <_>
          <internalNodes>
            0 -1 111 -1378354373 -1344278065 -740696241 -1560328321
            -1691092169 1605357023 -1210098847 -50340363</internalNodes>
          <leafValues>
            -4.9182233214378357e-01 4.3890213966369629e-01</leafValues></_>
        <_>
          <internalNodes>
            0 -1 2 1439289600 -38972588 -1006587585 -49840043 1498288388
            1392726880 1850469076 1897996882</internalNodes>
          <leafValues>
            -7.3545151948928833e-01 3.1376880407333374e-01</leafValues></_>
        <_>
          <internalNodes>
            0 -1 63 737546045 249518437 -36178945 -594115373 409556569
            -91555265 -1108711163 -1103200387</internalNodes>
          <leafValues>
            -5.7478523254394531e-01 3.6842420697212219e-01</leafValues></_>
        <_>
          <internalNodes>
            0 -1 72 731651957 -1778869409 -1857315617 2119714683
            -678790809 1536926597 -75286283 -1373365356</internalNodes>
          <leafValues>
            -6.1133170127868652e-01 3.5324999690055847e-01</leafValues></_></weakClassifiers></_>
    <!-- stage 3 -->
    <_>
      <maxWeakCount>7</maxWeakCount>
      <stageThreshold>-8.8038545846939087e-01</stageThreshold>
      <weakClassifiers>
        <_>
          <internalNodes>
            0 -1 127 -1343750145 -1356867585 -648940033 -455364401
            -1043792033 2145292555 -1245710109 -272629835</internalNodes>
          <leafValues>
            -5.6512820720672607e-01 3.5073977708816528e-01</leafValues></_>
        <_>
          <internalNodes>
            0 -1 116 753876799 786044895 -247081579 -352398849
            1321153663 -270548597 -611724683 -33755211</internalNodes>
          <leafValues>
            -5.4899972677230835e-01 3.7441563606262207e-01</leafValues></_>
        <_>
          <internalNodes>
            0 -1 106 238288191 769522579 -1761091713 -404825093
            859262263 160383099 -741638799 -570982923</internalNodes>
          <leafValues>
            -5.0350660085678101e-01 3.9289784431457520e-01</leafValues></_>
        <_>
          <internalNodes>
            0 -1 58 -1159309443 -169397958 -179975969 -112115249
            -1274166803 -1081874077 -74825493 -1092061835</internalNodes>
          <leafValues>
            -5.2890706062316895e-01 3.9142587780952454e-01</leafValues></_>
        <_>
          <internalNodes>
            0 -1 112 -1998624393 -2015405801 -1050279425 -1575158389
            -88384135 -3603298 -391262508 -598443151</internalNodes>
          <leafValues>
            -5.4283571243286133e-01 3.7138587236404419e-01</leafValues></_>
        <_>
          <internalNodes>
            0 -1 93 -1593835713 804257775 -16777358 -1074397323
            -134809635 -268959745 -16812591 -268566539</internalNodes>
          <leafValues>
            -4.1561624407768250e-01 5.0950896739959717e-01</leafValues></_>
        <_>
          <internalNodes>
            0 -1 20 1870260719 -444546623 -1266558370 -421750691
            -657823929 1811613268 -37115357 -732957712</internalNodes>
          <leafValues>
            -5.0188589096069336e-01 4.2034760117530823e-01</leafValues></_></weakClassifiers></_>
    <!-- stage 4 -->
    <_>
      <maxWeakCount>8</maxWeakCount>
      <stageThreshold>-1.4896047115325928e+00</stageThreshold>
      <weakClassifiers>
        <_>
          <internalNodes>
            0 -1 123 -1414530177 803019679 1368506741 -1361061429
            -1077151105 -1127495717 -87046031 -403702273</internalNodes>
          <leafValues>
            -5.6478947401046753e-01 2.6299211382865906e-01</leafValues></_>
        <_>
          <internalNodes>
            0 -1 9 -1073782985 -1403160533 -720288452 -293404706
            1808497015 2052835866 1659861333 -34148540</internalNodes>
          <leafValues>
            -5.4872214794158936e-01 3.1829562783241272e-01</leafValues></_>
        <_>
          <internalNodes>
            0 -1 65 -67435983 1025203543 -1128250153 1918844989
            -766571245 -1659148238 1067163257 1880945520</internalNodes>
          <leafValues>
            -5.3174161911010742e-01 3.4600344300270081e-01</leafValues></_>
        <_>
          <internalNodes>
            0 -1 81 -1673560193 -1210100897 -670480899 1993511167
            -124107137 -1364524799 -368686408 -84141195</internalNodes>
          <leafValues>
            -4.1955125331878662e-01 4.3438318371772766e-01</leafValues></_>
        <_>
          <internalNodes>
            0 -1 97 -403749001 -1361329013 -1047670627 -1529032869
            -1430687131 1594065128 -890159131 -286205615</internalNodes>
          <leafValues>
            -5.2693682909011841e-01 3.3313810825347900e-01</leafValues></_>
        <_>
          <internalNodes>
            0 -1 90 -30946304 -673744884 -687680261 1645785179
            -1731622767 -602224617 201837035 709649</internalNodes>
          <leafValues>
            -6.1293989419937134e-01 3.1118240952491760e-01</leafValues></_>
        <_>
          <internalNodes>
            0 -1 83 655244285 668755163 -747510441 2131133761 939747403
            -1125924725 -41358367 -589370084</internalNodes>
          <leafValues>
            -5.4607760906219482e-01 3.3229705691337585e-01</leafValues></_>
        <_>
          <internalNodes>
            0 -1 41 -2029564661 -1205916655 -1073627065 -691541495
            1766747495 -805121717 -519878487 -84978331</internalNodes>
          <leafValues>
            -4.1908782720565796e-01 4.7147020697593689e-01</leafValues></_></weakClassifiers></_>
    <!-- stage 5 -->
    <_>
      <maxWeakCount>8</maxWeakCount>
      <stageThreshold>-1.5734591484069824e+00</stageThreshold>
      <weakClassifiers>
        <_>
          <internalNodes>
            0 -1 128 -1114375169 588774381 -634139557 1855314715
            -351607189 1871675465 -91266313 -50860803</internalNodes>
          <leafValues>
            -5.6357580423355103e-01 2.4345146119594574e-01</leafValues></_>
        <_>
          <internalNodes>
            0 -1 46 666193717 -176459651 -686500676 478472191
            -1695921028 -41400245 -1198621835 -927957183</internalNodes>
          <leafValues>
            -5.7866060733795166e-01 2.6989349722862244e-01</leafValues></_>
        <_>
          <internalNodes>
            0 -1 19 -1880131777 -1387350693 -1675912481 -90782977
            1372223543 -279068362 1698656353 -294456971</internalNodes>
          <leafValues>
            -5.0212568044662476e-01 3.3861961960792542e-01</leafValues></_>
        <_>
          <internalNodes>
            0 -1 60 -482094329 1964060755 1345086416 1922540939
            -1593306976 -348534358 542751053 1881731350</internalNodes>
          <leafValues>
            -5.1791161298751831e-01 3.5081404447555542e-01</leafValues></_>
        <_>
          <internalNodes>
            0 -1 0 2086594124 1396917703 -988684033 1709899912 808038
            -83445701 -341574793 -763669943</internalNodes>
          <leafValues>
            -5.2454406023025513e-01 3.2667779922485352e-01</leafValues></_>
        <_>
          <internalNodes>
            0 -1 109 1070264757 -1514700443 -2134802287 -812516712
            814308014 730071051 1747002291 -1256696159</internalNodes>
          <leafValues>
            -4.7878056764602661e-01 3.6548149585723877e-01</leafValues></_>
        <_>
          <internalNodes>
            0 -1 105 -1914710217 -1483475467 -777463835 -1898212376
            -1236276357 1770234379 180963120 -201329192</internalNodes>
          <leafValues>
            -4.7751984000205994e-01 3.6729696393013000e-01</leafValues></_>
        <_>
          <internalNodes>
            0 -1 73 794783991 183461185 -723133025 506910295 -1865721765
            -645182971 -76874252 -827294384</internalNodes>
          <leafValues>
            -5.3382766246795654e-01 3.4971144795417786e-01</leafValues></_></weakClassifiers></_>
    <!-- stage 6 -->
    <_>
      <maxWeakCount>9</maxWeakCount>
      <stageThreshold>-1.1169251203536987e+00</stageThreshold>
      <weakClassifiers>
        <_>
          <internalNodes>
            0 -1 100 -1478328449 -1583889969 -250490505 -70004227
            1498110971 -558634835 1537866481 -16854535</internalNodes>
          <leafValues>
            -5.3159040212631226e-01 2.1931907534599304e-01</leafValues></_>
        <_>
          <internalNodes>
            0 -1 92 223745911 -143050533 -767361609 -396433159
            -1984733364 -24537061 -336858379 -396087948</internalNodes>
          <leafValues>
            -5.3830933570861816e-01 2.7554091811180115e-01</leafValues></_>
        <_>
          <internalNodes>
            0 -1 80 1985901887 -1373988997 -317475851 -95550061
            -1671223651 -1367111514 -15035529 -130357482</internalNodes>
          <leafValues>
            -4.0344268083572388e-01 3.7213027477264404e-01</leafValues></_>
        <_>
          <internalNodes>
            0 -1 5 -155192709 -188809357 -268452098 -609026125 -96572389
            2138502525 -9076746 -223953679</internalNodes>
          <leafValues>
            -3.5468745231628418e-01 4.2430937290191650e-01</leafValues></_>
        <_>
          <internalNodes>
            0 -1 98 -1073744079 9689877 21320373 1090114692 -2125565135
            303637543 257837384 6111693</internalNodes>
          <leafValues>
            -5.6347543001174927e-01 3.0420184135437012e-01</leafValues></_>
        <_>
          <internalNodes>
            0 -1 52 1094058273 1427591425 699586847 806411092
            -1987542631 -1088339581 -1894020295 -1123016770</internalNodes>
          <leafValues>
            -4.9326711893081665e-01 3.2632419466972351e-01</leafValues></_>
        <_>
          <internalNodes>
            0 -1 11 1380288174 -15725417 -158379754 -581727996 43581457
            -133951197 855720284 2032531511</internalNodes>
          <leafValues>
            -5.5550402402877808e-01 2.9503855109214783e-01</leafValues></_>
        <_>
          <internalNodes>
            0 -1 47 -1914997771 -1623455790 -699870370 -1193456932
            481971065 -1348926962 -259479051 -554140804</internalNodes>
          <leafValues>
            -4.4142010807991028e-01 3.8567674160003662e-01</leafValues></_>
        <_>
          <internalNodes>
            0 -1 54 -1028732510 882336281 1933677011 1946804635
            1857434511 -376797015 992721305 86851762</internalNodes>
          <leafValues>
            -4.9478563666343689e-01 3.1588986515998840e-01</leafValues></_></weakClassifiers></_>
    <!-- stage 7 -->
    <_>
      <maxWeakCount>8</maxWeakCount>
      <stageThreshold>-9.4309043884277344e-01</stageThreshold>
      <weakClassifiers>
        <_>
          <internalNodes>
            0 -1 79 -620797993 -2254413 -1793764899 -19213313 -325329349
            -7804725 -391290115 -55250191</internalNodes>
          <leafValues>
            -5.1793247461318970e-01 2.3524521291255951e-01</leafValues></_>
        <_>
          <internalNodes>
            0 -1 119 -1409566401 -1375776217 -1038564966 -352683653
            -842327181 -280098661 -1295021081 -17318255</internalNodes>
          <leafValues>
            -4.4021147489547729e-01 3.3081173896789551e-01</leafValues></_>
        <_>
          <internalNodes>
            0 -1 26 -556222992 2103105244 -694895782 2068271920
            321010584 214719025 570700538 138286651</internalNodes>
          <leafValues>
            -5.3411883115768433e-01 2.7641850709915161e-01</leafValues></_>
        <_>
          <internalNodes>
            0 -1 17 -1709193777 266867163 -2012164370 -55696210
            1086581375 1772847257 -476010201 -170408185</internalNodes>
          <leafValues>
            -4.2549878358840942e-01 3.6792573332786560e-01</leafValues></_>
        <_>
          <internalNodes>
            0 -1 94 -1925317829 757825960 16937461 1905522452 1755432908
            -1884584953 999249349 -537105667</internalNodes>
          <leafValues>
            -4.1396608948707581e-01 3.5703146457672119e-01</leafValues></_>
        <_>
          <internalNodes>
            0 -1 75 -510431095 1502236947 -1677714726 274495523
            333398616 -1356201937 -393635623 1681062674</internalNodes>
          <leafValues>
            -5.6295943260192871e-01 2.8906935453414917e-01</leafValues></_>
        <_>
          <internalNodes>
            0 -1 14 -257762732 -69524976 1141933821 -305232307
            1099305312 -370474941 1355029783 1261652227</internalNodes>
          <leafValues>
            -5.9101384878158569e-01 2.9566067457199097e-01</leafValues></_>
        <_>
          <internalNodes>
            0 -1 126 -1882506459 49095299 -1795077731 1711686111
            2132434022 180912134 -577890058 -958366620</internalNodes>
          <leafValues>
            -6.2701803445816040e-01 2.5703531503677368e-01</leafValues></_></weakClassifiers></_>
    <!-- stage 8 -->
    <_>
      <maxWeakCount>8</maxWeakCount>
      <stageThreshold>-9.4259482622146606e-01</stageThreshold>
      <weakClassifiers>
        <_>
          <internalNodes>
            0 -1 124 -1476408325 -1420406317 -1340128975 1861835963
            -895878795 -52723655 -72628203 -529138827</internalNodes>
          <leafValues>
            -5.9538358449935913e-01 1.0947109758853912e-01</leafValues></_>
        <_>
          <internalNodes>
            0 -1 121 771489565 639021567 -976120454 -285359493
            1892338551 -1163288437 -1974483166 -440403275</internalNodes>
          <leafValues>
            -4.7775676846504211e-01 2.5616231560707092e-01</leafValues></_>
        <_>
          <internalNodes>
            0 -1 3 1478489954 -214969935 -780107269 395985282 1923745091
            -1348755318 293839359 -690502541</internalNodes>
          <leafValues>
            -4.2418122291564941e-01 3.1836101412773132e-01</leafValues></_>
        <_>
          <internalNodes>
            0 -1 74 -1131209059 -183119803 487030877 -1306387235
            -2128696773 -878173973 -1700615223 -265228163</internalNodes>
          <leafValues>
            -3.8892170786857605e-01 3.7836000323295593e-01</leafValues></_>
        <_>
          <internalNodes>
            0 -1 40 2070427452 159135256 285229258 -238003456
            -1944575591 -787921886 1811949772 -1087763394</internalNodes>
          <leafValues>
            -5.3483510017395020e-01 2.7247124910354614e-01</leafValues></_>
        <_>
          <internalNodes>
            0 -1 78 802568429 -2033991522 -1857961635 533838015
            -2104814917 -238370688 1003224017 -17151516</internalNodes>
          <leafValues>
            -4.4263300299644470e-01 3.4267151355743408e-01</leafValues></_>
        <_>
          <internalNodes>
            0 -1 86 -1979811025 659343705 -1794788645 -1370701545
            156189047 -340017016 2047384276 -386127496</internalNodes>
          <leafValues>
            -5.4950261116027832e-01 2.6454290747642517e-01</leafValues></_>
        <_>
          <internalNodes>
            0 -1 61 -673994455 1396083236 -2147278865 1346171927
            281778385 2023473155 -1031001904 676328010</internalNodes>
          <leafValues>
            -4.9600136280059814e-01 3.1078651547431946e-01</leafValues></_></weakClassifiers></_>
    <!-- stage 9 -->
    <_>
      <maxWeakCount>10</maxWeakCount>
      <stageThreshold>-1.0110284090042114e+00</stageThreshold>
      <weakClassifiers>
        <_>
          <internalNodes>
            0 -1 95 266302967 -581181313 -671010401 -626788941 504947965
            -1407504241 162427881 -87631032</internalNodes>
          <leafValues>
            -5.0767540931701660e-01 1.7803922295570374e-01</leafValues></_>
        <_>
          <internalNodes>
            0 -1 30 -1185196449 722480471 -1721837554 -359476456
            982211199 -67501885 -102075595 -1528373663</internalNodes>
          <leafValues>
            -5.1837843656539917e-01 2.5232890248298645e-01</leafValues></_>
        <_>
          <internalNodes>
            0 -1 27 -493400145 1272500505 -1995638281 1191058027
            676489597 2056694282 -1897906572 -51970491</internalNodes>
          <leafValues>
            -4.6756371855735779e-01 2.6352441310882568e-01</leafValues></_>
        <_>
          <internalNodes>
            0 -1 62 -2088177888 -1487876156 1694880640 -70192364
            -2128718081 159402328 528839057 536708177</internalNodes>
          <leafValues>
            -5.1949954032897949e-01 2.7666148543357849e-01</leafValues></_>
        <_>
          <internalNodes>
            0 -1 8 1783573559 -1156321273 2013452471 -468528830
            444794240 -903348221 -528002785 -1052304781</internalNodes>
          <leafValues>
            -4.1355845332145691e-01 3.3257302641868591e-01</leafValues></_>
        <_>
          <internalNodes>
            0 -1 35 -129746490 -7151277 -804155424 1024491803 1120031335
            436799659 1703240049 1459611299</internalNodes>
          <leafValues>
            -5.8323222398757935e-01 2.4752037227153778e-01</leafValues></_>
        <_>
          <internalNodes>
            0 -1 48 -207231094 1859455750 298550523 297006441 -114699887
            -1700019984 1479520376 -59664272</internalNodes>
          <leafValues>
            -4.4301280379295349e-01 3.2496991753578186e-01</leafValues></_>
        <_>
          <internalNodes>
            0 -1 82 -121999933 -92536975 -620855425 1382120743
            1224679113 -321060865 -22299160 -771558125</internalNodes>
          <leafValues>
            -3.6262848973274231e-01 4.0683382749557495e-01</leafValues></_>
        <_>
          <internalNodes>
            0 -1 76 403439893 -548223758 -771182113 -100630192
            -118142923 -754728950 -1870029899 -633556675</internalNodes>
          <leafValues>
            -4.8091861605644226e-01 2.9763433337211609e-01</leafValues></_>
        <_>
          <internalNodes>
            0 -1 66 798448965 634929601 -800915253 -625966450 -528063588
            -834502485 -1145615683 -1095234571</internalNodes>
          <leafValues>
            -4.4311830401420593e-01 3.4248337149620056e-01</leafValues></_></weakClassifiers></_>
    <!-- stage 10 -->
    <_>
      <maxWeakCount>10</maxWeakCount>
      <stageThreshold>-1.0453574657440186e+00</stageThreshold>
      <weakClassifiers>
        <_>
          <internalNodes>
            0 -1 107 51903291 -1950224912 -540943024 -1365388449
            2058086375 243435771 1762749217 -846202003</internalNodes>
          <leafValues>
            -5.6824147701263428e-01 1.0603174567222595e-01</leafValues></_>
        <_>
          <internalNodes>
            0 -1 104 -880845833 -1145589030 -251604749 -120021925
            -1434049414 -16080853 -1433675747 -22758653</internalNodes>
          <leafValues>
            -3.7216737866401672e-01 3.4687143564224243e-01</leafValues></_>
        <_>
          <internalNodes>
            0 -1 13 -296759318 -1362783626 2105758099 -1940546503
            1111490929 -540147630 1415215958 902284133</internalNodes>
          <leafValues>
            -5.3186893463134766e-01 2.4127854406833649e-01</leafValues></_>
        <_>
          <internalNodes>
            0 -1 56 1101046528 635243780 307747227 1972851637
            -2102717013 -592740197 567095961 470831320</internalNodes>
          <leafValues>
            -6.5526896715164185e-01 2.1696214377880096e-01</leafValues></_>
        <_>
          <internalNodes>
            0 -1 89 -1155943039 -2023132883 -1825640409 1876767236
            59040755 13860995 461593316 984160527</internalNodes>
          <leafValues>
            -4.9645897746086121e-01 2.6375851035118103e-01</leafValues></_>
        <_>
          <internalNodes>
            0 -1 18 -543556801 -99051060 -1722264998 1246916928
            1359687769 -262732792 578833523 -210572301</internalNodes>
          <leafValues>
            -4.2515936493873596e-01 3.3827954530715942e-01</leafValues></_>
        <_>
          <internalNodes>
            0 -1 42 1451697927 -436255374 -649868021 -141878309
            1405245697 -186994414 827424938 -52002586</internalNodes>
          <leafValues>
            -3.5648980736732483e-01 3.9226022362709045e-01</leafValues></_>
        <_>
          <internalNodes>
            0 -1 68 -2134503343 1548900375 17942813 1383075959 965102401
            -301846525 1913655324 -928783361</internalNodes>
          <leafValues>
            -4.5079648494720459e-01 3.0147165060043335e-01</leafValues></_>
        <_>
          <internalNodes>
            0 -1 103 584303897 1397621250 -464936687 -1826516450
            -259459587 -821853911 1152010957 -1638872808</internalNodes>
          <leafValues>
            -3.9978340268135071e-01 3.5029813647270203e-01</leafValues></_>
        <_>
          <internalNodes>
            0 -1 113 -1521035673 667095071 1149366477 -1534439260
            -1370939371 2066477449 -519447055 -151786828</internalNodes>
          <leafValues>
            -4.7471302747726440e-01 3.0987793207168579e-01</leafValues></_></weakClassifiers></_>
    <!-- stage 11 -->
    <_>
      <maxWeakCount>11</maxWeakCount>
      <stageThreshold>-1.3873341083526611e+00</stageThreshold>
      <weakClassifiers>
        <_>
          <internalNodes>
            0 -1 101 -170135925 -1358524008 -183404069 2031479057
            990763925 62595504 2024353877 -579077921</internalNodes>
          <leafValues>
            -5.3074628114700317e-01 1.3342696428298950e-01</leafValues></_>
        <_>
          <internalNodes>
            0 -1 10 -1988731545 -1215441315 1527628255 1847577169
            -7636619 -1153725000 -76584363 -1201481615</internalNodes>
          <leafValues>
            -4.6099016070365906e-01 2.4645946919918060e-01</leafValues></_>
        <_>
          <internalNodes>
            0 -1 117 777727299 1802486619 169075594 -2009414241
            -237953684 -11827185 -1416926188 -487114156</internalNodes>
          <leafValues>
            -5.5124872922897339e-01 2.2250409424304962e-01</leafValues></_>
        <_>
          <internalNodes>
            0 -1 29 1372612576 -211077665 -1592036523 -204273030
            1137203049 -74885080 1636137341 -923590142</internalNodes>
          <leafValues>
            -4.6409279108047485e-01 2.8275576233863831e-01</leafValues></_>
        <_>
          <internalNodes>
            0 -1 67 -1810955084 -774041524 1213295097 1342372957
            2061213723 -1895102405 853391609 2049489208</internalNodes>
          <leafValues>
            -4.9993160367012024e-01 2.6881572604179382e-01</leafValues></_>
        <_>
          <internalNodes>
            0 -1 6 -6360325 2136753629 -1055961707 571879647 -226224004
            1476862592 -1925132742 -1505331277</internalNodes>
          <leafValues>
            -3.7084582448005676e-01 3.3367502689361572e-01</leafValues></_>
        <_>
          <internalNodes>
            0 -1 55 -1094181027 949469205 1126826972 -24231789
            -892704627 -480575357 1477208480 -1466024648</internalNodes>
          <leafValues>
            -5.3642392158508301e-01 2.2405168414115906e-01</leafValues></_>
        <_>
          <internalNodes>
            0 -1 4 -337916825 1468028918 -1072590486 -1698172538
            -754234829 1565139412 1619810658 -1110972175</internalNodes>
          <leafValues>
            -4.1253697872161865e-01 3.3089205622673035e-01</leafValues></_>
        <_>
          <internalNodes>
            0 -1 45 -95316615 -1600891451 -1727721198 -1078082535
            1945885085 -829620210 1032238240 -1641201984</internalNodes>
          <leafValues>
            -3.5624635219573975e-01 3.7279129028320312e-01</leafValues></_>
        <_>
          <internalNodes>
            0 -1 91 -1282362019 -1376472761 2072121937 -662089082
            593154359 562040835 950158454 2061199757</internalNodes>
          <leafValues>
            -4.5358759164810181e-01 3.1018733978271484e-01</leafValues></_>
        <_>
          <internalNodes>
            0 -1 23 1799792448 1361487420 1342886175 1553402320
            1078593803 -345472998 1585699417 -1703402487</internalNodes>
          <leafValues>
            -5.5470961332321167e-01 2.3920151591300964e-01</leafValues></_></weakClassifiers></_>
    <!-- stage 12 -->
    <_>
      <maxWeakCount>10</maxWeakCount>
      <stageThreshold>-1.0359762907028198e+00</stageThreshold>
      <weakClassifiers>
        <_>
          <internalNodes>
            0 -1 59 -492313817 1412935207 -1073233717 -741483731
            -628171813 -1316814183 -2063027505 -9732869</internalNodes>
          <leafValues>
            -4.2398571968078613e-01 2.9439252614974976e-01</leafValues></_>
        <_>
          <internalNodes>
            0 -1 129 784581427 -1966152810 -798928618 -1907829667
            -1840361549 2072119365 833740797 -1241550487</internalNodes>
          <leafValues>
            -4.2552468180656433e-01 2.5832942128181458e-01</leafValues></_>
        <_>
          <internalNodes>
            0 -1 12 -1387533333 -1356337433 -1073807365 -35160194
            -574728771 -1090519083 878661427 -427969419</internalNodes>
          <leafValues>
            -3.3671739697456360e-01 3.5502550005912781e-01</leafValues></_>
        <_>
          <internalNodes>
            0 -1 34 -1143445449 -109002273 1191199611 -1074359243
            -1031054776 2064261123 756644405 -90948796</internalNodes>
          <leafValues>
            -4.2303901910781860e-01 2.7900922298431396e-01</leafValues></_>
        <_>
          <internalNodes>
            0 -1 25 1253351850 1562558759 184569904 857040707 1083058377
            -662656253 1546926026 809120080</internalNodes>
          <leafValues>
            -5.8648622035980225e-01 2.2159218788146973e-01</leafValues></_>
        <_>
          <internalNodes>
            0 -1 43 -582549760 1570124372 -66010583 -130184434 277500800
            1152034993 281832282 1470202270</internalNodes>
          <leafValues>
            -4.7426268458366394e-01 2.7015098929405212e-01</leafValues></_>
        <_>
          <internalNodes>
            0 -1 38 1989627929 1310085187 -130016483 982040838
            -1813288405 -1332574071 -583607324 -1898907100</internalNodes>
          <leafValues>
            -5.0734370946884155e-01 2.6534995436668396e-01</leafValues></_>
        <_>
          <internalNodes>
            0 -1 71 -779099583 1934393397 1091112401 270426514
            -611671163 1136281014 -2119829255 572122239</internalNodes>
          <leafValues>
            -4.5389449596405029e-01 3.0304318666458130e-01</leafValues></_>
        <_>
          <internalNodes>
            0 -1 31 -1543249733 747870426 1346441411 -146767815
            194714177 -384574141 1405141180 -1017908697</internalNodes>
          <leafValues>
            -4.3319582939147949e-01 3.1274348497390747e-01</leafValues></_>
        <_>
          <internalNodes>
            0 -1 24 588014148 -910012004 -1055141701 -1610297030
            -2145965516 -1440052725 -1996261055 -554926224</internalNodes>
          <leafValues>
            -6.0166394710540771e-01 2.4737383425235748e-01</leafValues></_></weakClassifiers></_>
    <!-- stage 13 -->
    <_>
      <maxWeakCount>12</maxWeakCount>
      <stageThreshold>-1.0240390300750732e+00</stageThreshold>
      <weakClassifiers>
        <_>
          <internalNodes>
            0 -1 87 -213915105 1405211987 -735884836 -225521225
            -489084561 -611745398 -1129719244 -1191390241</internalNodes>
          <leafValues>
            -4.9450549483299255e-01 1.5715402364730835e-01</leafValues></_>
        <_>
          <internalNodes>
            0 -1 44 1466162857 -820322315 1879044081 2147065328
            -822168375 1258083830 -235882054 -543435586</internalNodes>
          <leafValues>
            -2.8378960490226746e-01 4.1096040606498718e-01</leafValues></_>
        <_>
          <internalNodes>
            0 -1 32 1924850498 1994445157 1359206511 -1304262382
            1900692261 -360263222 1217198439 -897594366</internalNodes>
          <leafValues>
            -4.1585108637809753e-01 2.6816588640213013e-01</leafValues></_>
        <_>
          <internalNodes>
            0 -1 37 -24095582 -547481324 1298385586 397431297 824135418
            1277953311 -1533305942 1495867365</internalNodes>
          <leafValues>
            -4.2154392600059509e-01 2.7620920538902283e-01</leafValues></_>
        <_>
          <internalNodes>
            0 -1 28 -294710085 -13632137 -1140888524 2038071291
            -30916475 -290162860 2104981406 -9187565</internalNodes>
          <leafValues>
            -2.8179904818534851e-01 4.2758107185363770e-01</leafValues></_>
        <_>
          <internalNodes>
            0 -1 49 -954046718 1008382036 -113179707 -408292840
            -1064683015 -368123407 361380602 -625641280</internalNodes>
          <leafValues>
            -4.0916579961776733e-01 3.1416836380958557e-01</leafValues></_>
        <_>
          <internalNodes>
            0 -1 51 -114785876 -1944427763 822841776 -456416943
            -926320165 1804101689 -1363075009 1638523111</internalNodes>
          <leafValues>
            -4.0427389740943909e-01 3.1496113538742065e-01</leafValues></_>
        <_>
          <internalNodes>
            0 -1 85 -492641626 -783255445 1451579645 -95133219
            -1743225207 -582311896 -973039219 1177858816</internalNodes>
          <leafValues>
            -5.1027029752731323e-01 2.2709535062313080e-01</leafValues></_>
        <_>
          <internalNodes>
            0 -1 36 1758749018 272782110 17851792 -201324392 1352679849
            336118412 -628963280 1588231634</internalNodes>
          <leafValues>
            -4.7730547189712524e-01 2.9390332102775574e-01</leafValues></_>
        <_>
          <internalNodes>
            0 -1 39 -1382407881 794653635 -2147401377 -424266816
            1649070407 1881710738 2009708629 -522194459</internalNodes>
          <leafValues>
            -4.7751063108444214e-01 2.5412797927856445e-01</leafValues></_>
        <_>
          <internalNodes>
            0 -1 50 1263199296 151208072 16866691 -850722170 -1335216661
            -1198913142 820631770 327838668</internalNodes>
          <leafValues>
            -5.2558100223541260e-01 2.3698846995830536e-01</leafValues></_>
        <_>
          <internalNodes>
            0 -1 122 756808012 760971977 1346392975 68911751 -1727854544
            137003146 -1708897691 -1163310747</internalNodes>
          <leafValues>
            -5.5055755376815796e-01 2.3558551073074341e-01</leafValues></_></weakClassifiers></_>
    <!-- stage 14 -->
    <_>
      <maxWeakCount>10</maxWeakCount>
      <stageThreshold>-9.7168761491775513e-01</stageThreshold>
      <weakClassifiers>
        <_>
          <internalNodes>
            0 -1 69 -196312961 286855377 -645721825 878428437 -594968529
            -1114996575 -1299543046 -16989525</internalNodes>
          <leafValues>
            -4.5235708355903625e-01 1.8371041119098663e-01</leafValues></_>
        <_>
          <internalNodes>
            0 -1 57 -16208676 672696738 -1826466749 -645436764
            1376207351 781764815 -1202515916 1006377400</internalNodes>
          <leafValues>
            -5.2598202228546143e-01 1.9072712957859039e-01</leafValues></_>
        <_>
          <internalNodes>
            0 -1 7 1750312639 768598042 -1743200931 2077482763
            -791061757 -1710011869 -65715341 -1087044493</internalNodes>
          <leafValues>
            -3.3103930950164795e-01 3.2227027416229248e-01</leafValues></_>
        <_>
          <internalNodes>
            0 -1 77 -1063647421 -550315774 1354760529 269558043
            161004412 -1098823048 1489706740 1211152442</internalNodes>
          <leafValues>
            -4.5062637329101562e-01 2.8064349293708801e-01</leafValues></_>
        <_>
          <internalNodes>
            0 -1 64 886857027 665829704 -1585065792 1872741377 -87549192
            986522767 -208682896 -1614850303</internalNodes>
          <leafValues>
            -4.0599924325942993e-01 2.7255269885063171e-01</leafValues></_>
        <_>
          <internalNodes>
            0 -1 22 -507276414 1066930292 -1849048866 -1883529133
            149229956 942802966 -2127754225 1296025015</internalNodes>
          <leafValues>
            -4.3820381164550781e-01 2.8342774510383606e-01</leafValues></_>
        <_>
          <internalNodes>
            0 -1 110 73364605 -1882779443 -753831587 -48975630
            -2004220997 815989132 -1329486921 -1090586371</internalNodes>
          <leafValues>
            -4.2887952923774719e-01 2.7849954366683960e-01</leafValues></_>
        <_>
          <internalNodes>
            0 -1 1 -1765678494 -1677139838 -863919623 -653618672
            2053636483 -1626760174 1361207911 340117893</internalNodes>
          <leafValues>
            -4.7585996985435486e-01 2.6927271485328674e-01</leafValues></_>
        <_>
          <internalNodes>
            0 -1 118 -1250260107 -7159734 2030076253 -296678643
            1376520239 1275797540 -1457566728 -1978607854</internalNodes>
          <leafValues>
            -4.4426846504211426e-01 2.8151780366897583e-01</leafValues></_>
        <_>
          <internalNodes>
            0 -1 102 546305481 -1417359289 1493442941 -373374839
            1518821521 1249935546 -773098507 -2074578519</internalNodes>
          <leafValues>
            -4.5316505432128906e-01 2.8754541277885437e-01</leafValues></_></weakClassifiers></_></stages>
  <features>
    <_>
      <rect>
        0 1 9 12</rect></_>
    <_>
      <rect>
        0 2 7 6</rect></_>
    <_>
      <rect>
        0 4 16 11</rect></_>
    <_>
      <rect>
        0 8 12 5</rect></_>
    <_>
      <rect>
        0 22 4 3</rect></_>
    <_>
      <rect>
        0 24 4 6</rect></_>
    <_>
      <rect>
        0 26 5 5</rect></_>
    <_>
      <rect>
        0 37 3 3</rect></_>
    <_>
      <rect>
        0 38 9 4</rect></_>
    <_>
      <rect>
        0 42 1 1</rect></_>
    <_>
      <rect>
        0 43 1 1</rect></_>
    <_>
      <rect>
        1 0 13 5</rect></_>
    <_>
      <rect>
        1 1 3 2</rect></_>
    <_>
      <rect>
        1 1 6 3</rect></_>
    <_>
      <rect>
        1 1 6 13</rect></_>
    <_>
      <rect>
        1 2 13 10</rect></_>
    <_>
      <rect>
        1 10 7 7</rect></_>
    <_>
      <rect>
        1 18 2 1</rect></_>
    <_>
      <rect>
        1 33 3 2</rect></_>
    <_>
      <rect>
        1 44 1 1</rect></_>
    <_>
      <rect>
        2 24 2 1</rect></_>
    <_>
      <rect>
        2 33 1 1</rect></_>
    <_>
      <rect>
        3 0 15 7</rect></_>
    <_>
      <rect>
        3 1 7 13</rect></_>
    <_>
      <rect>
        3 3 1 2</rect></_>
    <_>
      <rect>
        3 6 12 14</rect></_>
    <_>
      <rect>
        5 20 11 10</rect></_>
    <_>
      <rect>
        5 34 1 1</rect></_>
    <_>
      <rect>
        5 41 4 3</rect></_>
    <_>
      <rect>
        6 0 10 10</rect></_>
    <_>
      <rect>
        6 38 1 1</rect></_>
    <_>
      <rect>
        6 42 6 2</rect></_>
    <_>
      <rect>
        7 2 7 9</rect></_>
    <_>
      <rect>
        7 38 1 1</rect></_>
    <_>
      <rect>
        7 43 1 1</rect></_>
    <_>
      <rect>
        8 15 10 4</rect></_>
    <_>
      <rect>
        8 25 5 5</rect></_>
    <_>
      <rect>
        9 27 7 6</rect></_>
    <_>
      <rect>
        10 36 1 1</rect></_>
    <_>
      <rect>
        11 13 1 1</rect></_>
    <_>
      <rect>
        12 23 3 9</rect></_>
    <_>
      <rect>
        13 8 1 4</rect></_>
    <_>
      <rect>
        13 12 11 10</rect></_>
    <_>
      <rect>
        14 16 11 10</rect></_>
    <_>
      <rect>
        14 25 9 6</rect></_>
    <_>
      <rect>
        15 29 7 7</rect></_>
    <_>
      <rect>
        17 44 1 1</rect></_>
    <_>
      <rect>
        18 46 1 1</rect></_>
    <_>
      <rect>
        19 2 10 11</rect></_>
    <_>
      <rect>
        19 6 7 13</rect></_>
    <_>
      <rect>
        19 7 5 10</rect></_>
    <_>
      <rect>
        19 21 10 9</rect></_>
    <_>
      <rect>
        20 3 8 6</rect></_>
    <_>
      <rect>
        20 4 10 7</rect></_>
    <_>
      <rect>
        20 9 9 10</rect></_>
    <_>
      <rect>
        20 39 1 2</rect></_>
    <_>
      <rect>
        21 2 7 12</rect></_>
    <_>
      <rect>
        21 28 4 7</rect></_>
    <_>
      <rect>
        23 0 1 3</rect></_>
    <_>
      <rect>
        23 3 5 13</rect></_>
    <_>
      <rect>
        23 4 9 5</rect></_>
    <_>
      <rect>
        23 6 9 7</rect></_>
    <_>
      <rect>
        23 22 7 9</rect></_>
    <_>
      <rect>
        23 44 1 1</rect></_>
    <_>
      <rect>
        24 25 3 3</rect></_>
    <_>
      <rect>
        25 3 6 3</rect></_>
    <_>
      <rect>
        25 44 1 1</rect></_>
    <_>
      <rect>
        26 0 4 3</rect></_>
    <_>
      <rect>
        26 6 5 3</rect></_>
    <_>
      <rect>
        27 0 4 1</rect></_>
    <_>
      <rect>
        27 1 1 3</rect></_>
    <_>
      <rect>
        27 9 7 7</rect></_>
    <_>
      <rect>
        27 10 1 1</rect></_>
    <_>
      <rect>
        27 47 1 1</rect></_>
    <_>
      <rect>
        28 0 2 2</rect></_>
    <_>
      <rect>
        28 3 6 4</rect></_>
    <_>
      <rect>
        28 9 1 1</rect></_>
    <_>
      <rect>
        30 6 4 3</rect></_>
    <_>
      <rect>
        31 45 1 1</rect></_>
    <_>
      <rect>
        32 0 1 1</rect></_>
    <_>
      <rect>
        32 0 5 3</rect></_>
    <_>
      <rect>
        32 1 1 1</rect></_>
    <_>
      <rect>
        32 1 6 7</rect></_>
    <_>
      <rect>
        32 46 1 1</rect></_>
    <_>
      <rect>
        33 1 1 2</rect></_>
    <_>
      <rect>
        33 4 4 4</rect></_>
    <_>
      <rect>
        33 14 1 1</rect></_>
    <_>
      <rect>
        34 0 1 1</rect></_>
    <_>
      <rect>
        34 8 1 1</rect></_>
    <_>
      <rect>
        34 25 5 8</rect></_>
    <_>
      <rect>
        35 4 5 10</rect></_>
    <_>
      <rect>
        36 28 4 7</rect></_>
    <_>
      <rect>
        37 8 1 1</rect></_>
    <_>
      <rect>
        37 44 1 1</rect></_>
    <_>
      <rect>
        37 44 2 2</rect></_>
    <_>
      <rect>
        38 1 3 3</rect></_>
    <_>
      <rect>
        38 4 1 1</rect></_>
    <_>
      <rect>
        38 14 1 1</rect></_>
    <_>
      <rect>
        38 19 4 8</rect></_>
    <_>
      <rect>
        38 42 1 1</rect></_>
    <_>
      <rect>
        38 43 1 1</rect></_>
    <_>
      <rect>
        39 36 3 2</rect></_>
    <_>
      <rect>
        39 43 1 1</rect></_>
    <_>
      <rect>
        40 0 2 4</rect></_>
    <_>
      <rect>
        40 11 1 1</rect></_>
    <_>
      <rect>
        40 29 1 1</rect></_>
    <_>
      <rect>
        40 38 1 1</rect></_>
    <_>
      <rect>
        40 39 3 3</rect></_>
    <_>
      <rect>
        40 43 1 1</rect></_>
    <_>
      <rect>
        40 45 1 1</rect></_>
    <_>
      <rect>
        40 47 1 1</rect></_>
    <_>
      <rect>
        41 34 1 1</rect></_>
    <_>
      <rect>
        42 8 1 1</rect></_>
    <_>
      <rect>
        42 24 1 1</rect></_>
    <_>
      <rect>
        42 33 1 1</rect></_>
    <_>
      <rect>
        42 43 1 1</rect></_>
    <_>
      <rect>
        42 47 1 1</rect></_>
    <_>
      <rect>
        43 24 1 1</rect></_>
    <_>
      <rect>
        44 10 2 5</rect></_>
    <_>
      <rect>
        44 29 1 1</rect></_>
    <_>
      <rect>
        44 30 2 1</rect></_>
    <_>
      <rect>
        44 33 1 1</rect></_>
    <_>
      <rect>
        45 33 1 2</rect></_>
    <_>
      <rect>
        46 34 1 1</rect></_>
    <_>
      <rect>
        47 19 1 1</rect></_>
    <_>
      <rect>
        47 26 1 2</rect></_>
    <_>
      <rect>
        47 28 1 2</rect></_>
    <_>
      <rect>
        47 32 1 1</rect></_>
    <_>
      <rect>
        47 33 1 1</rect></_>
    <_>
      <rect>
        47 35 1 2</rect></_></features></cascade>
</opencv_storage>
